svm_type c_svc
kernel_type rbf
gamma 0.05555555555555555
nr_class 2
total_sv 38
rho 0.3871201197156546
label 1 0
nr_sv 13 25
SV
0.2737085882334223 6:2.0 7:2.0 8:-2.0 9:2.0 11:-2.0 12:-2.0 13:-2.0 14:2.0 15:-2.0 16:-2.0 17:-2.0 18:-2.0 
0.24168910176945368 2:2.0 3:-2.0 4:-2.0 5:-2.0 6:2.0 7:2.0 8:-2.0 9:2.0 10:2.0 11:-2.0 12:-2.0 13:-2.0 14:2.0 15:-2.0 16:-2.0 17:-2.0 18:-2.0 
0.7231076962626038 2:2.0 3:-2.0 4:-2.0 5:-2.0 6:2.0 7:2.0 9:2.0 10:2.0 11:-2.0 12:-2.0 13:-2.0 14:2.0 16:-2.0 17:-2.0 18:-2.0 
0.7489014997429256 3:2.0 10:2.0 11:-2.0 12:-2.0 13:-2.0 15:-2.0 16:-2.0 17:-2.0 18:-2.0 
0.3655195821882708 2:2.0 3:2.0 4:-2.0 6:2.0 7:2.0 9:2.0 10:2.0 11:-2.0 12:-2.0 13:-2.0 14:2.0 15:-2.0 16:-2.0 
1.0 1:-2.0 2:-2.0 4:-2.0 5:-2.0 8:-2.0 11:-2.0 12:-2.0 13:-2.0 15:-2.0 16:-2.0 17:-2.0 18:-2.0 
1.0 2:2.0 4:-2.0 5:-2.0 6:-2.0 7:-2.0 8:-2.0 9:-2.0 11:-2.0 12:-2.0 13:-2.0 15:-2.0 16:-2.0 17:-2.0 18:-2.0 
0.2924270730597867 2:2.0 4:-2.0 5:-2.0 7:-2.0 8:-2.0 11:-2.0 12:-2.0 13:-2.0 15:-2.0 16:-2.0 17:-2.0 18:-2.0 
1.0 1:2.0 2:2.0 3:2.0 5:2.0 6:2.0 7:2.0 9:2.0 10:2.0 13:2.0 14:2.0 15:2.0 
0.864667887348037 1:2.0 2:2.0 5:-2.0 6:2.0 7:2.0 9:2.0 10:2.0 14:2.0 16:-2.0 17:-2.0 18:-2.0 
0.7149037745333203 2:2.0 6:2.0 7:2.0 9:2.0 10:2.0 12:-2.0 15:-2.0 16:-2.0 17:-2.0 
0.9058474301129106 1:2.0 3:2.0 4:-2.0 6:2.0 7:2.0 9:2.0 11:-2.0 12:-2.0 13:-2.0 14:2.0 15:-2.0 
0.4624129276481398 1:2.0 2:2.0 3:2.0 5:-2.0 6:2.0 7:2.0 8:-2.0 9:2.0 10:2.0 11:-2.0 12:-2.0 14:2.0 15:-2.0 16:-2.0 17:-2.0 18:-2.0 
-0.4968602106170847 1:-2.0 2:-2.0 3:-2.0 4:-2.0 5:-2.0 6:-2.0 7:-2.0 9:-2.0 10:-2.0 11:-2.0 12:-2.0 14:-2.0 15:-2.0 16:-2.0 17:-2.0 
-0.10959156520327992 1:-2.0 2:-2.0 4:-2.0 10:-2.0 13:-2.0 17:2.0 18:2.0 
-0.563060222448312 3:-2.0 10:-2.0 12:-2.0 13:2.0 14:-2.0 15:-2.0 16:-2.0 17:-2.0 18:-2.0 
-0.31668346322828805 2:-2.0 3:-2.0 11:2.0 12:2.0 13:-2.0 14:-2.0 18:2.0 
-0.9732257129917563 1:-2.0 3:2.0 4:-2.0 10:-2.0 11:-2.0 12:-2.0 13:-2.0 16:-2.0 
-0.3521118190679091 3:-2.0 4:2.0 6:-2.0 8:2.0 9:-2.0 10:2.0 13:2.0 14:-2.0 16:2.0 
-0.462903728058201 2:2.0 13:2.0 16:2.0 18:-2.0 
-0.013172014053972952 1:-2.0 2:-2.0 5:-2.0 6:-2.0 7:-2.0 9:-2.0 10:-2.0 14:-2.0 17:-2.0 
-0.3102785454266711 1:2.0 3:2.0 4:2.0 5:2.0 10:2.0 11:2.0 12:2.0 13:2.0 15:2.0 16:2.0 17:2.0 18:2.0 
-0.3814731031298848 1:-2.0 2:-2.0 3:-2.0 5:2.0 6:-2.0 7:-2.0 8:-2.0 9:-2.0 10:-2.0 11:2.0 13:-2.0 16:-2.0 17:2.0 
-0.26223066908740206 2:-2.0 3:-2.0 5:-2.0 6:-2.0 7:-2.0 9:-2.0 10:-2.0 14:-2.0 15:-2.0 16:-2.0 17:-2.0 18:-2.0 
-0.05644051421187817 2:-2.0 3:-2.0 6:-2.0 7:-2.0 9:-2.0 11:2.0 12:2.0 14:-2.0 16:2.0 
-0.3619581267514021 2:-2.0 3:2.0 4:2.0 5:2.0 6:-2.0 7:-2.0 8:2.0 9:-2.0 10:-2.0 11:2.0 12:2.0 13:2.0 15:2.0 16:2.0 17:2.0 18:2.0 
-1.0 2:2.0 5:-2.0 6:2.0 7:2.0 8:2.0 9:2.0 10:2.0 11:-2.0 17:-2.0 18:-2.0 
-0.28877077438097926 1:-2.0 2:-2.0 4:-2.0 6:-2.0 7:-2.0 9:-2.0 13:-2.0 14:-2.0 15:-2.0 
-0.3482858824132123 2:-2.0 3:-2.0 5:-2.0 7:-2.0 13:-2.0 16:2.0 17:2.0 
-0.08994085059252019 4:2.0 5:2.0 7:-2.0 10:-2.0 11:2.0 16:2.0 
-0.26708797234975323 1:2.0 4:2.0 5:2.0 8:2.0 10:2.0 12:2.0 13:2.0 14:-2.0 15:2.0 16:2.0 17:2.0 18:2.0 
-0.2682193209759368 1:2.0 2:2.0 3:2.0 4:2.0 5:2.0 8:2.0 11:2.0 12:2.0 13:2.0 15:2.0 16:2.0 17:2.0 18:2.0 
-0.19486132885203392 2:-2.0 6:-2.0 7:-2.0 8:2.0 9:-2.0 10:-2.0 14:-2.0 15:2.0 16:2.0 17:2.0 
-0.3109166736191316 3:2.0 5:2.0 7:-2.0 8:-2.0 10:-2.0 17:2.0 18:2.0 
-0.24340424377739417 1:-2.0 2:-2.0 5:2.0 6:-2.0 7:-2.0 8:-2.0 9:-2.0 10:-2.0 13:-2.0 14:-2.0 15:-2.0 17:2.0 18:2.0 
-0.38105919621883616 1:-2.0 2:-2.0 3:-2.0 5:-2.0 6:-2.0 7:-2.0 8:-2.0 9:-2.0 10:-2.0 11:-2.0 13:2.0 14:-2.0 17:-2.0 18:-2.0 
-0.23604383324605863 2:-2.0 4:2.0 7:-2.0 10:-2.0 11:2.0 12:2.0 13:2.0 15:2.0 16:2.0 
-0.30460579019697215 2:2.0 6:-2.0 8:2.0 10:-2.0 11:2.0 12:2.0 14:-2.0 16:2.0 17:2.0 
